digraph Tree {
node [shape=box, style="filled, rounded", color="black", fontname="helvetica"] ;
edge [fontname="helvetica"] ;
0 [label="perimeter_mean <= 96.58\ngini = 0.467\nsamples = 398\nvalue = [250, 148]\nclass = Benign", fillcolor="#f4ccae"] ;
1 [label="concavity_mean <= 0.111\ngini = 0.188\nsamples = 266\nvalue = [238, 28]\nclass = Benign", fillcolor="#e89050"] ;
0 -> 1 [labeldistance=2.5, labelangle=45, headlabel="True"] ;
2 [label="radius_mean <= 14.98\ngini = 0.081\nsamples = 237\nvalue = [227, 10]\nclass = Benign", fillcolor="#e68742"] ;
1 -> 2 ;
3 [label="concavity_mean <= 0.074\ngini = 0.073\nsamples = 236\nvalue = [227, 9]\nclass = Benign", fillcolor="#e68641"] ;
2 -> 3 ;
4 [label="area_mean <= 429.55\ngini = 0.038\nsamples = 206\nvalue = [202, 4]\nclass = Benign", fillcolor="#e6833d"] ;
3 -> 4 ;
5 [label="gini = 0.0\nsamples = 93\nvalue = [93, 0]\nclass = Benign", fillcolor="#e58139"] ;
4 -> 5 ;
6 [label="perimeter_mean <= 75.27\ngini = 0.068\nsamples = 113\nvalue = [109, 4]\nclass = Benign", fillcolor="#e68640"] ;
4 -> 6 ;
7 [label="gini = 0.0\nsamples = 1\nvalue = [0, 1]\nclass = Malignant", fillcolor="#399de5"] ;
6 -> 7 ;
8 [label="concavity_mean <= 0.047\ngini = 0.052\nsamples = 112\nvalue = [109, 3]\nclass = Benign", fillcolor="#e6843e"] ;
6 -> 8 ;
9 [label="symmetry_mean <= 0.178\ngini = 0.023\nsamples = 87\nvalue = [86, 1]\nclass = Benign", fillcolor="#e5823b"] ;
8 -> 9 ;
10 [label="gini = 0.0\nsamples = 64\nvalue = [64, 0]\nclass = Benign", fillcolor="#e58139"] ;
9 -> 10 ;
11 [label="symmetry_mean <= 0.179\ngini = 0.083\nsamples = 23\nvalue = [22, 1]\nclass = Benign", fillcolor="#e68742"] ;
9 -> 11 ;
12 [label="gini = 0.0\nsamples = 1\nvalue = [0, 1]\nclass = Malignant", fillcolor="#399de5"] ;
11 -> 12 ;
13 [label="gini = 0.0\nsamples = 22\nvalue = [22, 0]\nclass = Benign", fillcolor="#e58139"] ;
11 -> 13 ;
14 [label="compactness_mean <= 0.062\ngini = 0.147\nsamples = 25\nvalue = [23, 2]\nclass = Benign", fillcolor="#e78c4a"] ;
8 -> 14 ;
15 [label="gini = 0.0\nsamples = 1\nvalue = [0, 1]\nclass = Malignant", fillcolor="#399de5"] ;
14 -> 15 ;
16 [label="compactness_mean <= 0.079\ngini = 0.08\nsamples = 24\nvalue = [23, 1]\nclass = Benign", fillcolor="#e68642"] ;
14 -> 16 ;
17 [label="compactness_mean <= 0.078\ngini = 0.32\nsamples = 5\nvalue = [4, 1]\nclass = Benign", fillcolor="#eca06a"] ;
16 -> 17 ;
18 [label="gini = 0.0\nsamples = 4\nvalue = [4, 0]\nclass = Benign", fillcolor="#e58139"] ;
17 -> 18 ;
19 [label="gini = 0.0\nsamples = 1\nvalue = [0, 1]\nclass = Malignant", fillcolor="#399de5"] ;
17 -> 19 ;
20 [label="gini = 0.0\nsamples = 19\nvalue = [19, 0]\nclass = Benign", fillcolor="#e58139"] ;
16 -> 20 ;
21 [label="smoothness_mean <= 0.095\ngini = 0.278\nsamples = 30\nvalue = [25, 5]\nclass = Benign", fillcolor="#ea9a61"] ;
3 -> 21 ;
22 [label="gini = 0.0\nsamples = 14\nvalue = [14, 0]\nclass = Benign", fillcolor="#e58139"] ;
21 -> 22 ;
23 [label="concavity_mean <= 0.098\ngini = 0.43\nsamples = 16\nvalue = [11, 5]\nclass = Benign", fillcolor="#f1ba93"] ;
21 -> 23 ;
24 [label="compactness_mean <= 0.081\ngini = 0.278\nsamples = 12\nvalue = [10, 2]\nclass = Benign", fillcolor="#ea9a61"] ;
23 -> 24 ;
25 [label="gini = 0.0\nsamples = 1\nvalue = [0, 1]\nclass = Malignant", fillcolor="#399de5"] ;
24 -> 25 ;
26 [label="smoothness_mean <= 0.097\ngini = 0.165\nsamples = 11\nvalue = [10, 1]\nclass = Benign", fillcolor="#e88e4d"] ;
24 -> 26 ;
27 [label="gini = 0.0\nsamples = 1\nvalue = [0, 1]\nclass = Malignant", fillcolor="#399de5"] ;
26 -> 27 ;
28 [label="gini = 0.0\nsamples = 10\nvalue = [10, 0]\nclass = Benign", fillcolor="#e58139"] ;
26 -> 28 ;
29 [label="symmetry_mean <= 0.205\ngini = 0.375\nsamples = 4\nvalue = [1, 3]\nclass = Malignant", fillcolor="#7bbeee"] ;
23 -> 29 ;
30 [label="gini = 0.0\nsamples = 3\nvalue = [0, 3]\nclass = Malignant", fillcolor="#399de5"] ;
29 -> 30 ;
31 [label="gini = 0.0\nsamples = 1\nvalue = [1, 0]\nclass = Benign", fillcolor="#e58139"] ;
29 -> 31 ;
32 [label="gini = 0.0\nsamples = 1\nvalue = [0, 1]\nclass = Malignant", fillcolor="#399de5"] ;
2 -> 32 ;
33 [label="smoothness_mean <= 0.098\ngini = 0.471\nsamples = 29\nvalue = [11, 18]\nclass = Malignant", fillcolor="#b2d9f5"] ;
1 -> 33 ;
34 [label="symmetry_mean <= 0.223\ngini = 0.198\nsamples = 9\nvalue = [8, 1]\nclass = Benign", fillcolor="#e89152"] ;
33 -> 34 ;
35 [label="gini = 0.0\nsamples = 8\nvalue = [8, 0]\nclass = Benign", fillcolor="#e58139"] ;
34 -> 35 ;
36 [label="gini = 0.0\nsamples = 1\nvalue = [0, 1]\nclass = Malignant", fillcolor="#399de5"] ;
34 -> 36 ;
37 [label="area_mean <= 330.9\ngini = 0.255\nsamples = 20\nvalue = [3, 17]\nclass = Malignant", fillcolor="#5caeea"] ;
33 -> 37 ;
38 [label="gini = 0.0\nsamples = 2\nvalue = [2, 0]\nclass = Benign", fillcolor="#e58139"] ;
37 -> 38 ;
39 [label="concavity_mean <= 0.117\ngini = 0.105\nsamples = 18\nvalue = [1, 17]\nclass = Malignant", fillcolor="#45a3e7"] ;
37 -> 39 ;
40 [label="concavity_mean <= 0.115\ngini = 0.5\nsamples = 2\nvalue = [1, 1]\nclass = Benign", fillcolor="#ffffff"] ;
39 -> 40 ;
41 [label="gini = 0.0\nsamples = 1\nvalue = [0, 1]\nclass = Malignant", fillcolor="#399de5"] ;
40 -> 41 ;
42 [label="gini = 0.0\nsamples = 1\nvalue = [1, 0]\nclass = Benign", fillcolor="#e58139"] ;
40 -> 42 ;
43 [label="gini = 0.0\nsamples = 16\nvalue = [0, 16]\nclass = Malignant", fillcolor="#399de5"] ;
39 -> 43 ;
44 [label="concavity_mean <= 0.072\ngini = 0.165\nsamples = 132\nvalue = [12, 120]\nclass = Malignant", fillcolor="#4da7e8"] ;
0 -> 44 [labeldistance=2.5, labelangle=-45, headlabel="False"] ;
45 [label="concavity_mean <= 0.054\ngini = 0.5\nsamples = 18\nvalue = [9, 9]\nclass = Benign", fillcolor="#ffffff"] ;
44 -> 45 ;
46 [label="area_mean <= 868.9\ngini = 0.346\nsamples = 9\nvalue = [2, 7]\nclass = Malignant", fillcolor="#72b9ec"] ;
45 -> 46 ;
47 [label="gini = 0.0\nsamples = 6\nvalue = [0, 6]\nclass = Malignant", fillcolor="#399de5"] ;
46 -> 47 ;
48 [label="concavity_mean <= 0.037\ngini = 0.444\nsamples = 3\nvalue = [2, 1]\nclass = Benign", fillcolor="#f2c09c"] ;
46 -> 48 ;
49 [label="gini = 0.0\nsamples = 1\nvalue = [0, 1]\nclass = Malignant", fillcolor="#399de5"] ;
48 -> 49 ;
50 [label="gini = 0.0\nsamples = 2\nvalue = [2, 0]\nclass = Benign", fillcolor="#e58139"] ;
48 -> 50 ;
51 [label="symmetry_mean <= 0.166\ngini = 0.346\nsamples = 9\nvalue = [7, 2]\nclass = Benign", fillcolor="#eca572"] ;
45 -> 51 ;
52 [label="symmetry_mean <= 0.152\ngini = 0.444\nsamples = 3\nvalue = [1, 2]\nclass = Malignant", fillcolor="#9ccef2"] ;
51 -> 52 ;
53 [label="gini = 0.0\nsamples = 1\nvalue = [1, 0]\nclass = Benign", fillcolor="#e58139"] ;
52 -> 53 ;
54 [label="gini = 0.0\nsamples = 2\nvalue = [0, 2]\nclass = Malignant", fillcolor="#399de5"] ;
52 -> 54 ;
55 [label="gini = 0.0\nsamples = 6\nvalue = [6, 0]\nclass = Benign", fillcolor="#e58139"] ;
51 -> 55 ;
56 [label="area_mean <= 657.45\ngini = 0.051\nsamples = 114\nvalue = [3, 111]\nclass = Malignant", fillcolor="#3ea0e6"] ;
44 -> 56 ;
57 [label="perimeter_mean <= 97.62\ngini = 0.444\nsamples = 3\nvalue = [2, 1]\nclass = Benign", fillcolor="#f2c09c"] ;
56 -> 57 ;
58 [label="gini = 0.0\nsamples = 1\nvalue = [0, 1]\nclass = Malignant", fillcolor="#399de5"] ;
57 -> 58 ;
59 [label="gini = 0.0\nsamples = 2\nvalue = [2, 0]\nclass = Benign", fillcolor="#e58139"] ;
57 -> 59 ;
60 [label="perimeter_mean <= 102.85\ngini = 0.018\nsamples = 111\nvalue = [1, 110]\nclass = Malignant", fillcolor="#3b9ee5"] ;
56 -> 60 ;
61 [label="radius_mean <= 15.61\ngini = 0.142\nsamples = 13\nvalue = [1, 12]\nclass = Malignant", fillcolor="#49a5e7"] ;
60 -> 61 ;
62 [label="gini = 0.0\nsamples = 12\nvalue = [0, 12]\nclass = Malignant", fillcolor="#399de5"] ;
61 -> 62 ;
63 [label="gini = 0.0\nsamples = 1\nvalue = [1, 0]\nclass = Benign", fillcolor="#e58139"] ;
61 -> 63 ;
64 [label="gini = 0.0\nsamples = 98\nvalue = [0, 98]\nclass = Malignant", fillcolor="#399de5"] ;
60 -> 64 ;
}