digraph Tree {
node [shape=box, style="filled, rounded", color="black", fontname="helvetica"] ;
edge [fontname="helvetica"] ;
0 [label="Glucose <= 132.5\ngini = 0.454\nsamples = 537\nvalue = [350, 187]\nclass = No", fillcolor="#f3c4a3"] ;
1 [label="Age <= 29.5\ngini = 0.323\nsamples = 370\nvalue = [295, 75]\nclass = No", fillcolor="#eca16b"] ;
0 -> 1 [labeldistance=2.5, labelangle=45, headlabel="True"] ;
2 [label="BMI <= 45.4\ngini = 0.186\nsamples = 212\nvalue = [190, 22]\nclass = No", fillcolor="#e89050"] ;
1 -> 2 ;
3 [label="Pregnancies <= 7.5\ngini = 0.151\nsamples = 206\nvalue = [189, 17]\nclass = No", fillcolor="#e78c4b"] ;
2 -> 3 ;
4 [label="DiabetesPedigreeFunction <= 0.509\ngini = 0.137\nsamples = 203\nvalue = [188, 15]\nclass = No", fillcolor="#e78b49"] ;
3 -> 4 ;
5 [label="BloodPressure <= 19.0\ngini = 0.043\nsamples = 138\nvalue = [135, 3]\nclass = No", fillcolor="#e6843d"] ;
4 -> 5 ;
6 [label="BMI <= 28.05\ngini = 0.278\nsamples = 6\nvalue = [5, 1]\nclass = No", fillcolor="#ea9a61"] ;
5 -> 6 ;
7 [label="gini = 0.0\nsamples = 5\nvalue = [5, 0]\nclass = No", fillcolor="#e58139"] ;
6 -> 7 ;
8 [label="gini = 0.0\nsamples = 1\nvalue = [0, 1]\nclass = Yes", fillcolor="#399de5"] ;
6 -> 8 ;
9 [label="BloodPressure <= 73.0\ngini = 0.03\nsamples = 132\nvalue = [130, 2]\nclass = No", fillcolor="#e5833c"] ;
5 -> 9 ;
10 [label="gini = 0.0\nsamples = 92\nvalue = [92, 0]\nclass = No", fillcolor="#e58139"] ;
9 -> 10 ;
11 [label="Insulin <= 38.0\ngini = 0.095\nsamples = 40\nvalue = [38, 2]\nclass = No", fillcolor="#e68843"] ;
9 -> 11 ;
12 [label="Insulin <= 34.0\ngini = 0.231\nsamples = 15\nvalue = [13, 2]\nclass = No", fillcolor="#e99457"] ;
11 -> 12 ;
13 [label="BloodPressure <= 74.5\ngini = 0.133\nsamples = 14\nvalue = [13, 1]\nclass = No", fillcolor="#e78b48"] ;
12 -> 13 ;
14 [label="Pregnancies <= 2.0\ngini = 0.5\nsamples = 2\nvalue = [1, 1]\nclass = No", fillcolor="#ffffff"] ;
13 -> 14 ;
15 [label="gini = 0.0\nsamples = 1\nvalue = [1, 0]\nclass = No", fillcolor="#e58139"] ;
14 -> 15 ;
16 [label="gini = 0.0\nsamples = 1\nvalue = [0, 1]\nclass = Yes", fillcolor="#399de5"] ;
14 -> 16 ;
17 [label="gini = 0.0\nsamples = 12\nvalue = [12, 0]\nclass = No", fillcolor="#e58139"] ;
13 -> 17 ;
18 [label="gini = 0.0\nsamples = 1\nvalue = [0, 1]\nclass = Yes", fillcolor="#399de5"] ;
12 -> 18 ;
19 [label="gini = 0.0\nsamples = 25\nvalue = [25, 0]\nclass = No", fillcolor="#e58139"] ;
11 -> 19 ;
20 [label="BMI <= 32.1\ngini = 0.301\nsamples = 65\nvalue = [53, 12]\nclass = No", fillcolor="#eb9e66"] ;
4 -> 20 ;
21 [label="Pregnancies <= 2.5\ngini = 0.108\nsamples = 35\nvalue = [33, 2]\nclass = No", fillcolor="#e78945"] ;
20 -> 21 ;
22 [label="Glucose <= 127.5\ngini = 0.061\nsamples = 32\nvalue = [31, 1]\nclass = No", fillcolor="#e6853f"] ;
21 -> 22 ;
23 [label="gini = 0.0\nsamples = 29\nvalue = [29, 0]\nclass = No", fillcolor="#e58139"] ;
22 -> 23 ;
24 [label="DiabetesPedigreeFunction <= 1.047\ngini = 0.444\nsamples = 3\nvalue = [2, 1]\nclass = No", fillcolor="#f2c09c"] ;
22 -> 24 ;
25 [label="gini = 0.0\nsamples = 2\nvalue = [2, 0]\nclass = No", fillcolor="#e58139"] ;
24 -> 25 ;
26 [label="gini = 0.0\nsamples = 1\nvalue = [0, 1]\nclass = Yes", fillcolor="#399de5"] ;
24 -> 26 ;
27 [label="BMI <= 26.2\ngini = 0.444\nsamples = 3\nvalue = [2, 1]\nclass = No", fillcolor="#f2c09c"] ;
21 -> 27 ;
28 [label="gini = 0.0\nsamples = 1\nvalue = [0, 1]\nclass = Yes", fillcolor="#399de5"] ;
27 -> 28 ;
29 [label="gini = 0.0\nsamples = 2\nvalue = [2, 0]\nclass = No", fillcolor="#e58139"] ;
27 -> 29 ;
30 [label="Glucose <= 92.0\ngini = 0.444\nsamples = 30\nvalue = [20, 10]\nclass = No", fillcolor="#f2c09c"] ;
20 -> 30 ;
31 [label="DiabetesPedigreeFunction <= 1.272\ngini = 0.198\nsamples = 9\nvalue = [8, 1]\nclass = No", fillcolor="#e89152"] ;
30 -> 31 ;
32 [label="gini = 0.0\nsamples = 8\nvalue = [8, 0]\nclass = No", fillcolor="#e58139"] ;
31 -> 32 ;
33 [label="gini = 0.0\nsamples = 1\nvalue = [0, 1]\nclass = Yes", fillcolor="#399de5"] ;
31 -> 33 ;
34 [label="Glucose <= 118.5\ngini = 0.49\nsamples = 21\nvalue = [12, 9]\nclass = No", fillcolor="#f8e0ce"] ;
30 -> 34 ;
35 [label="BloodPressure <= 69.0\ngini = 0.42\nsamples = 10\nvalue = [3, 7]\nclass = Yes", fillcolor="#8ec7f0"] ;
34 -> 35 ;
36 [label="gini = 0.0\nsamples = 6\nvalue = [0, 6]\nclass = Yes", fillcolor="#399de5"] ;
35 -> 36 ;
37 [label="Age <= 23.0\ngini = 0.375\nsamples = 4\nvalue = [3, 1]\nclass = No", fillcolor="#eeab7b"] ;
35 -> 37 ;
38 [label="gini = 0.0\nsamples = 1\nvalue = [0, 1]\nclass = Yes", fillcolor="#399de5"] ;
37 -> 38 ;
39 [label="gini = 0.0\nsamples = 3\nvalue = [3, 0]\nclass = No", fillcolor="#e58139"] ;
37 -> 39 ;
40 [label="BMI <= 34.1\ngini = 0.298\nsamples = 11\nvalue = [9, 2]\nclass = No", fillcolor="#eb9d65"] ;
34 -> 40 ;
41 [label="Glucose <= 127.0\ngini = 0.444\nsamples = 3\nvalue = [1, 2]\nclass = Yes", fillcolor="#9ccef2"] ;
40 -> 41 ;
42 [label="gini = 0.0\nsamples = 2\nvalue = [0, 2]\nclass = Yes", fillcolor="#399de5"] ;
41 -> 42 ;
43 [label="gini = 0.0\nsamples = 1\nvalue = [1, 0]\nclass = No", fillcolor="#e58139"] ;
41 -> 43 ;
44 [label="gini = 0.0\nsamples = 8\nvalue = [8, 0]\nclass = No", fillcolor="#e58139"] ;
40 -> 44 ;
45 [label="Glucose <= 117.0\ngini = 0.444\nsamples = 3\nvalue = [1, 2]\nclass = Yes", fillcolor="#9ccef2"] ;
3 -> 45 ;
46 [label="gini = 0.0\nsamples = 1\nvalue = [1, 0]\nclass = No", fillcolor="#e58139"] ;
45 -> 46 ;
47 [label="gini = 0.0\nsamples = 2\nvalue = [0, 2]\nclass = Yes", fillcolor="#399de5"] ;
45 -> 47 ;
48 [label="Age <= 22.5\ngini = 0.278\nsamples = 6\nvalue = [1, 5]\nclass = Yes", fillcolor="#61b1ea"] ;
2 -> 48 ;
49 [label="gini = 0.0\nsamples = 1\nvalue = [1, 0]\nclass = No", fillcolor="#e58139"] ;
48 -> 49 ;
50 [label="gini = 0.0\nsamples = 5\nvalue = [0, 5]\nclass = Yes", fillcolor="#399de5"] ;
48 -> 50 ;
51 [label="BMI <= 26.9\ngini = 0.446\nsamples = 158\nvalue = [105, 53]\nclass = No", fillcolor="#f2c19d"] ;
1 -> 51 ;
52 [label="BMI <= 9.65\ngini = 0.117\nsamples = 32\nvalue = [30, 2]\nclass = No", fillcolor="#e78946"] ;
51 -> 52 ;
53 [label="gini = 0.0\nsamples = 2\nvalue = [0, 2]\nclass = Yes", fillcolor="#399de5"] ;
52 -> 53 ;
54 [label="gini = 0.0\nsamples = 30\nvalue = [30, 0]\nclass = No", fillcolor="#e58139"] ;
52 -> 54 ;
55 [label="DiabetesPedigreeFunction <= 0.561\ngini = 0.482\nsamples = 126\nvalue = [75, 51]\nclass = No", fillcolor="#f7d7c0"] ;
51 -> 55 ;
56 [label="Pregnancies <= 1.5\ngini = 0.425\nsamples = 85\nvalue = [59, 26]\nclass = No", fillcolor="#f0b990"] ;
55 -> 56 ;
57 [label="DiabetesPedigreeFunction <= 0.2\ngini = 0.473\nsamples = 13\nvalue = [5, 8]\nclass = Yes", fillcolor="#b5daf5"] ;
56 -> 57 ;
58 [label="gini = 0.0\nsamples = 3\nvalue = [3, 0]\nclass = No", fillcolor="#e58139"] ;
57 -> 58 ;
59 [label="Glucose <= 101.0\ngini = 0.32\nsamples = 10\nvalue = [2, 8]\nclass = Yes", fillcolor="#6ab6ec"] ;
57 -> 59 ;
60 [label="Glucose <= 96.0\ngini = 0.444\nsamples = 3\nvalue = [2, 1]\nclass = No", fillcolor="#f2c09c"] ;
59 -> 60 ;
61 [label="gini = 0.0\nsamples = 1\nvalue = [0, 1]\nclass = Yes", fillcolor="#399de5"] ;
60 -> 61 ;
62 [label="gini = 0.0\nsamples = 2\nvalue = [2, 0]\nclass = No", fillcolor="#e58139"] ;
60 -> 62 ;
63 [label="gini = 0.0\nsamples = 7\nvalue = [0, 7]\nclass = Yes", fillcolor="#399de5"] ;
59 -> 63 ;
64 [label="Insulin <= 11.0\ngini = 0.375\nsamples = 72\nvalue = [54, 18]\nclass = No", fillcolor="#eeab7b"] ;
56 -> 64 ;
65 [label="BloodPressure <= 73.0\ngini = 0.435\nsamples = 50\nvalue = [34, 16]\nclass = No", fillcolor="#f1bc96"] ;
64 -> 65 ;
66 [label="BMI <= 30.05\ngini = 0.494\nsamples = 18\nvalue = [8, 10]\nclass = Yes", fillcolor="#d7ebfa"] ;
65 -> 66 ;
67 [label="gini = 0.0\nsamples = 6\nvalue = [0, 6]\nclass = Yes", fillcolor="#399de5"] ;
66 -> 67 ;
68 [label="BloodPressure <= 67.0\ngini = 0.444\nsamples = 12\nvalue = [8, 4]\nclass = No", fillcolor="#f2c09c"] ;
66 -> 68 ;
69 [label="BloodPressure <= 58.0\ngini = 0.5\nsamples = 8\nvalue = [4, 4]\nclass = No", fillcolor="#ffffff"] ;
68 -> 69 ;
70 [label="gini = 0.0\nsamples = 3\nvalue = [3, 0]\nclass = No", fillcolor="#e58139"] ;
69 -> 70 ;
71 [label="Glucose <= 85.5\ngini = 0.32\nsamples = 5\nvalue = [1, 4]\nclass = Yes", fillcolor="#6ab6ec"] ;
69 -> 71 ;
72 [label="gini = 0.0\nsamples = 1\nvalue = [1, 0]\nclass = No", fillcolor="#e58139"] ;
71 -> 72 ;
73 [label="gini = 0.0\nsamples = 4\nvalue = [0, 4]\nclass = Yes", fillcolor="#399de5"] ;
71 -> 73 ;
74 [label="gini = 0.0\nsamples = 4\nvalue = [4, 0]\nclass = No", fillcolor="#e58139"] ;
68 -> 74 ;
75 [label="Glucose <= 28.5\ngini = 0.305\nsamples = 32\nvalue = [26, 6]\nclass = No", fillcolor="#eb9e67"] ;
65 -> 75 ;
76 [label="gini = 0.0\nsamples = 1\nvalue = [0, 1]\nclass = Yes", fillcolor="#399de5"] ;
75 -> 76 ;
77 [label="BMI <= 27.3\ngini = 0.271\nsamples = 31\nvalue = [26, 5]\nclass = No", fillcolor="#ea995f"] ;
75 -> 77 ;
78 [label="gini = 0.0\nsamples = 1\nvalue = [0, 1]\nclass = Yes", fillcolor="#399de5"] ;
77 -> 78 ;
79 [label="DiabetesPedigreeFunction <= 0.34\ngini = 0.231\nsamples = 30\nvalue = [26, 4]\nclass = No", fillcolor="#e99457"] ;
77 -> 79 ;
80 [label="DiabetesPedigreeFunction <= 0.185\ngini = 0.091\nsamples = 21\nvalue = [20, 1]\nclass = No", fillcolor="#e68743"] ;
79 -> 80 ;
81 [label="DiabetesPedigreeFunction <= 0.169\ngini = 0.32\nsamples = 5\nvalue = [4, 1]\nclass = No", fillcolor="#eca06a"] ;
80 -> 81 ;
82 [label="gini = 0.0\nsamples = 4\nvalue = [4, 0]\nclass = No", fillcolor="#e58139"] ;
81 -> 82 ;
83 [label="gini = 0.0\nsamples = 1\nvalue = [0, 1]\nclass = Yes", fillcolor="#399de5"] ;
81 -> 83 ;
84 [label="gini = 0.0\nsamples = 16\nvalue = [16, 0]\nclass = No", fillcolor="#e58139"] ;
80 -> 84 ;
85 [label="DiabetesPedigreeFunction <= 0.38\ngini = 0.444\nsamples = 9\nvalue = [6, 3]\nclass = No", fillcolor="#f2c09c"] ;
79 -> 85 ;
86 [label="gini = 0.0\nsamples = 2\nvalue = [0, 2]\nclass = Yes", fillcolor="#399de5"] ;
85 -> 86 ;
87 [label="Pregnancies <= 3.5\ngini = 0.245\nsamples = 7\nvalue = [6, 1]\nclass = No", fillcolor="#e9965a"] ;
85 -> 87 ;
88 [label="gini = 0.0\nsamples = 1\nvalue = [0, 1]\nclass = Yes", fillcolor="#399de5"] ;
87 -> 88 ;
89 [label="gini = 0.0\nsamples = 6\nvalue = [6, 0]\nclass = No", fillcolor="#e58139"] ;
87 -> 89 ;
90 [label="SkinThickness <= 46.5\ngini = 0.165\nsamples = 22\nvalue = [20, 2]\nclass = No", fillcolor="#e88e4d"] ;
64 -> 90 ;
91 [label="BloodPressure <= 81.0\ngini = 0.091\nsamples = 21\nvalue = [20, 1]\nclass = No", fillcolor="#e68743"] ;
90 -> 91 ;
92 [label="gini = 0.0\nsamples = 18\nvalue = [18, 0]\nclass = No", fillcolor="#e58139"] ;
91 -> 92 ;
93 [label="DiabetesPedigreeFunction <= 0.255\ngini = 0.444\nsamples = 3\nvalue = [2, 1]\nclass = No", fillcolor="#f2c09c"] ;
91 -> 93 ;
94 [label="gini = 0.0\nsamples = 2\nvalue = [2, 0]\nclass = No", fillcolor="#e58139"] ;
93 -> 94 ;
95 [label="gini = 0.0\nsamples = 1\nvalue = [0, 1]\nclass = Yes", fillcolor="#399de5"] ;
93 -> 95 ;
96 [label="gini = 0.0\nsamples = 1\nvalue = [0, 1]\nclass = Yes", fillcolor="#399de5"] ;
90 -> 96 ;
97 [label="Pregnancies <= 8.5\ngini = 0.476\nsamples = 41\nvalue = [16, 25]\nclass = Yes", fillcolor="#b8dcf6"] ;
55 -> 97 ;
98 [label="Glucose <= 96.5\ngini = 0.5\nsamples = 32\nvalue = [16, 16]\nclass = No", fillcolor="#ffffff"] ;
97 -> 98 ;
99 [label="DiabetesPedigreeFunction <= 1.16\ngini = 0.219\nsamples = 8\nvalue = [7, 1]\nclass = No", fillcolor="#e99355"] ;
98 -> 99 ;
100 [label="gini = 0.0\nsamples = 7\nvalue = [7, 0]\nclass = No", fillcolor="#e58139"] ;
99 -> 100 ;
101 [label="gini = 0.0\nsamples = 1\nvalue = [0, 1]\nclass = Yes", fillcolor="#399de5"] ;
99 -> 101 ;
102 [label="BloodPressure <= 69.0\ngini = 0.469\nsamples = 24\nvalue = [9, 15]\nclass = Yes", fillcolor="#b0d8f5"] ;
98 -> 102 ;
103 [label="Glucose <= 121.0\ngini = 0.32\nsamples = 5\nvalue = [4, 1]\nclass = No", fillcolor="#eca06a"] ;
102 -> 103 ;
104 [label="gini = 0.0\nsamples = 4\nvalue = [4, 0]\nclass = No", fillcolor="#e58139"] ;
103 -> 104 ;
105 [label="gini = 0.0\nsamples = 1\nvalue = [0, 1]\nclass = Yes", fillcolor="#399de5"] ;
103 -> 105 ;
106 [label="SkinThickness <= 47.5\ngini = 0.388\nsamples = 19\nvalue = [5, 14]\nclass = Yes", fillcolor="#80c0ee"] ;
102 -> 106 ;
107 [label="BloodPressure <= 86.0\ngini = 0.291\nsamples = 17\nvalue = [3, 14]\nclass = Yes", fillcolor="#63b2eb"] ;
106 -> 107 ;
108 [label="Insulin <= 222.5\ngini = 0.133\nsamples = 14\nvalue = [1, 13]\nclass = Yes", fillcolor="#48a5e7"] ;
107 -> 108 ;
109 [label="gini = 0.0\nsamples = 13\nvalue = [0, 13]\nclass = Yes", fillcolor="#399de5"] ;
108 -> 109 ;
110 [label="gini = 0.0\nsamples = 1\nvalue = [1, 0]\nclass = No", fillcolor="#e58139"] ;
108 -> 110 ;
111 [label="Insulin <= 55.0\ngini = 0.444\nsamples = 3\nvalue = [2, 1]\nclass = No", fillcolor="#f2c09c"] ;
107 -> 111 ;
112 [label="gini = 0.0\nsamples = 2\nvalue = [2, 0]\nclass = No", fillcolor="#e58139"] ;
111 -> 112 ;
113 [label="gini = 0.0\nsamples = 1\nvalue = [0, 1]\nclass = Yes", fillcolor="#399de5"] ;
111 -> 113 ;
114 [label="gini = 0.0\nsamples = 2\nvalue = [2, 0]\nclass = No", fillcolor="#e58139"] ;
106 -> 114 ;
115 [label="gini = 0.0\nsamples = 9\nvalue = [0, 9]\nclass = Yes", fillcolor="#399de5"] ;
97 -> 115 ;
116 [label="BMI <= 29.95\ngini = 0.442\nsamples = 167\nvalue = [55, 112]\nclass = Yes", fillcolor="#9acdf2"] ;
0 -> 116 [labeldistance=2.5, labelangle=-45, headlabel="False"] ;
117 [label="Glucose <= 151.5\ngini = 0.476\nsamples = 41\nvalue = [25, 16]\nclass = No", fillcolor="#f6d2b8"] ;
116 -> 117 ;
118 [label="BloodPressure <= 55.0\ngini = 0.34\nsamples = 23\nvalue = [18, 5]\nclass = No", fillcolor="#eca470"] ;
117 -> 118 ;
119 [label="Age <= 45.0\ngini = 0.444\nsamples = 3\nvalue = [1, 2]\nclass = Yes", fillcolor="#9ccef2"] ;
118 -> 119 ;
120 [label="gini = 0.0\nsamples = 2\nvalue = [0, 2]\nclass = Yes", fillcolor="#399de5"] ;
119 -> 120 ;
121 [label="gini = 0.0\nsamples = 1\nvalue = [1, 0]\nclass = No", fillcolor="#e58139"] ;
119 -> 121 ;
122 [label="BMI <= 27.95\ngini = 0.255\nsamples = 20\nvalue = [17, 3]\nclass = No", fillcolor="#ea975c"] ;
118 -> 122 ;
123 [label="gini = 0.0\nsamples = 11\nvalue = [11, 0]\nclass = No", fillcolor="#e58139"] ;
122 -> 123 ;
124 [label="Glucose <= 135.0\ngini = 0.444\nsamples = 9\nvalue = [6, 3]\nclass = No", fillcolor="#f2c09c"] ;
122 -> 124 ;
125 [label="gini = 0.0\nsamples = 1\nvalue = [0, 1]\nclass = Yes", fillcolor="#399de5"] ;
124 -> 125 ;
126 [label="DiabetesPedigreeFunction <= 0.183\ngini = 0.375\nsamples = 8\nvalue = [6, 2]\nclass = No", fillcolor="#eeab7b"] ;
124 -> 126 ;
127 [label="gini = 0.0\nsamples = 1\nvalue = [0, 1]\nclass = Yes", fillcolor="#399de5"] ;
126 -> 127 ;
128 [label="BMI <= 28.55\ngini = 0.245\nsamples = 7\nvalue = [6, 1]\nclass = No", fillcolor="#e9965a"] ;
126 -> 128 ;
129 [label="gini = 0.0\nsamples = 1\nvalue = [0, 1]\nclass = Yes", fillcolor="#399de5"] ;
128 -> 129 ;
130 [label="gini = 0.0\nsamples = 6\nvalue = [6, 0]\nclass = No", fillcolor="#e58139"] ;
128 -> 130 ;
131 [label="Age <= 61.0\ngini = 0.475\nsamples = 18\nvalue = [7, 11]\nclass = Yes", fillcolor="#b7dbf6"] ;
117 -> 131 ;
132 [label="Age <= 25.5\ngini = 0.391\nsamples = 15\nvalue = [4, 11]\nclass = Yes", fillcolor="#81c1ee"] ;
131 -> 132 ;
133 [label="gini = 0.0\nsamples = 2\nvalue = [2, 0]\nclass = No", fillcolor="#e58139"] ;
132 -> 133 ;
134 [label="DiabetesPedigreeFunction <= 0.676\ngini = 0.26\nsamples = 13\nvalue = [2, 11]\nclass = Yes", fillcolor="#5dafea"] ;
132 -> 134 ;
135 [label="gini = 0.0\nsamples = 10\nvalue = [0, 10]\nclass = Yes", fillcolor="#399de5"] ;
134 -> 135 ;
136 [label="BMI <= 27.65\ngini = 0.444\nsamples = 3\nvalue = [2, 1]\nclass = No", fillcolor="#f2c09c"] ;
134 -> 136 ;
137 [label="gini = 0.0\nsamples = 1\nvalue = [0, 1]\nclass = Yes", fillcolor="#399de5"] ;
136 -> 137 ;
138 [label="gini = 0.0\nsamples = 2\nvalue = [2, 0]\nclass = No", fillcolor="#e58139"] ;
136 -> 138 ;
139 [label="gini = 0.0\nsamples = 3\nvalue = [3, 0]\nclass = No", fillcolor="#e58139"] ;
131 -> 139 ;
140 [label="Glucose <= 155.5\ngini = 0.363\nsamples = 126\nvalue = [30, 96]\nclass = Yes", fillcolor="#77bced"] ;
116 -> 140 ;
141 [label="BloodPressure <= 61.0\ngini = 0.468\nsamples = 59\nvalue = [22, 37]\nclass = Yes", fillcolor="#afd7f4"] ;
140 -> 141 ;
142 [label="gini = 0.0\nsamples = 8\nvalue = [0, 8]\nclass = Yes", fillcolor="#399de5"] ;
141 -> 142 ;
143 [label="Age <= 42.5\ngini = 0.491\nsamples = 51\nvalue = [22, 29]\nclass = Yes", fillcolor="#cfe7f9"] ;
141 -> 143 ;
144 [label="BMI <= 41.9\ngini = 0.491\nsamples = 30\nvalue = [17, 13]\nclass = No", fillcolor="#f9e1d0"] ;
143 -> 144 ;
145 [label="BloodPressure <= 81.0\ngini = 0.444\nsamples = 24\nvalue = [16, 8]\nclass = No", fillcolor="#f2c09c"] ;
144 -> 145 ;
146 [label="Insulin <= 187.5\ngini = 0.5\nsamples = 16\nvalue = [8, 8]\nclass = No", fillcolor="#ffffff"] ;
145 -> 146 ;
147 [label="Glucose <= 147.0\ngini = 0.444\nsamples = 12\nvalue = [4, 8]\nclass = Yes", fillcolor="#9ccef2"] ;
146 -> 147 ;
148 [label="Pregnancies <= 10.0\ngini = 0.219\nsamples = 8\nvalue = [1, 7]\nclass = Yes", fillcolor="#55abe9"] ;
147 -> 148 ;
149 [label="gini = 0.0\nsamples = 7\nvalue = [0, 7]\nclass = Yes", fillcolor="#399de5"] ;
148 -> 149 ;
150 [label="gini = 0.0\nsamples = 1\nvalue = [1, 0]\nclass = No", fillcolor="#e58139"] ;
148 -> 150 ;
151 [label="Insulin <= 148.5\ngini = 0.375\nsamples = 4\nvalue = [3, 1]\nclass = No", fillcolor="#eeab7b"] ;
147 -> 151 ;
152 [label="gini = 0.0\nsamples = 3\nvalue = [3, 0]\nclass = No", fillcolor="#e58139"] ;
151 -> 152 ;
153 [label="gini = 0.0\nsamples = 1\nvalue = [0, 1]\nclass = Yes", fillcolor="#399de5"] ;
151 -> 153 ;
154 [label="gini = 0.0\nsamples = 4\nvalue = [4, 0]\nclass = No", fillcolor="#e58139"] ;
146 -> 154 ;
155 [label="gini = 0.0\nsamples = 8\nvalue = [8, 0]\nclass = No", fillcolor="#e58139"] ;
145 -> 155 ;
156 [label="SkinThickness <= 49.0\ngini = 0.278\nsamples = 6\nvalue = [1, 5]\nclass = Yes", fillcolor="#61b1ea"] ;
144 -> 156 ;
157 [label="gini = 0.0\nsamples = 5\nvalue = [0, 5]\nclass = Yes", fillcolor="#399de5"] ;
156 -> 157 ;
158 [label="gini = 0.0\nsamples = 1\nvalue = [1, 0]\nclass = No", fillcolor="#e58139"] ;
156 -> 158 ;
159 [label="DiabetesPedigreeFunction <= 0.226\ngini = 0.363\nsamples = 21\nvalue = [5, 16]\nclass = Yes", fillcolor="#77bced"] ;
143 -> 159 ;
160 [label="BloodPressure <= 85.0\ngini = 0.32\nsamples = 5\nvalue = [4, 1]\nclass = No", fillcolor="#eca06a"] ;
159 -> 160 ;
161 [label="gini = 0.0\nsamples = 4\nvalue = [4, 0]\nclass = No", fillcolor="#e58139"] ;
160 -> 161 ;
162 [label="gini = 0.0\nsamples = 1\nvalue = [0, 1]\nclass = Yes", fillcolor="#399de5"] ;
160 -> 162 ;
163 [label="Pregnancies <= 0.5\ngini = 0.117\nsamples = 16\nvalue = [1, 15]\nclass = Yes", fillcolor="#46a4e7"] ;
159 -> 163 ;
164 [label="gini = 0.0\nsamples = 1\nvalue = [1, 0]\nclass = No", fillcolor="#e58139"] ;
163 -> 164 ;
165 [label="gini = 0.0\nsamples = 15\nvalue = [0, 15]\nclass = Yes", fillcolor="#399de5"] ;
163 -> 165 ;
166 [label="Insulin <= 661.5\ngini = 0.21\nsamples = 67\nvalue = [8, 59]\nclass = Yes", fillcolor="#54aae9"] ;
140 -> 166 ;
167 [label="Age <= 44.5\ngini = 0.19\nsamples = 66\nvalue = [7, 59]\nclass = Yes", fillcolor="#50a9e8"] ;
166 -> 167 ;
168 [label="DiabetesPedigreeFunction <= 0.304\ngini = 0.115\nsamples = 49\nvalue = [3, 46]\nclass = Yes", fillcolor="#46a3e7"] ;
167 -> 168 ;
169 [label="DiabetesPedigreeFunction <= 0.27\ngini = 0.355\nsamples = 13\nvalue = [3, 10]\nclass = Yes", fillcolor="#74baed"] ;
168 -> 169 ;
170 [label="Pregnancies <= 9.0\ngini = 0.165\nsamples = 11\nvalue = [1, 10]\nclass = Yes", fillcolor="#4da7e8"] ;
169 -> 170 ;
171 [label="gini = 0.0\nsamples = 8\nvalue = [0, 8]\nclass = Yes", fillcolor="#399de5"] ;
170 -> 171 ;
172 [label="Glucose <= 177.0\ngini = 0.444\nsamples = 3\nvalue = [1, 2]\nclass = Yes", fillcolor="#9ccef2"] ;
170 -> 172 ;
173 [label="gini = 0.0\nsamples = 2\nvalue = [0, 2]\nclass = Yes", fillcolor="#399de5"] ;
172 -> 173 ;
174 [label="gini = 0.0\nsamples = 1\nvalue = [1, 0]\nclass = No", fillcolor="#e58139"] ;
172 -> 174 ;
175 [label="gini = 0.0\nsamples = 2\nvalue = [2, 0]\nclass = No", fillcolor="#e58139"] ;
169 -> 175 ;
176 [label="gini = 0.0\nsamples = 36\nvalue = [0, 36]\nclass = Yes", fillcolor="#399de5"] ;
168 -> 176 ;
177 [label="DiabetesPedigreeFunction <= 1.157\ngini = 0.36\nsamples = 17\nvalue = [4, 13]\nclass = Yes", fillcolor="#76bbed"] ;
167 -> 177 ;
178 [label="Age <= 50.5\ngini = 0.231\nsamples = 15\nvalue = [2, 13]\nclass = Yes", fillcolor="#57ace9"] ;
177 -> 178 ;
179 [label="Age <= 48.0\ngini = 0.48\nsamples = 5\nvalue = [2, 3]\nclass = Yes", fillcolor="#bddef6"] ;
178 -> 179 ;
180 [label="gini = 0.0\nsamples = 3\nvalue = [0, 3]\nclass = Yes", fillcolor="#399de5"] ;
179 -> 180 ;
181 [label="gini = 0.0\nsamples = 2\nvalue = [2, 0]\nclass = No", fillcolor="#e58139"] ;
179 -> 181 ;
182 [label="gini = 0.0\nsamples = 10\nvalue = [0, 10]\nclass = Yes", fillcolor="#399de5"] ;
178 -> 182 ;
183 [label="gini = 0.0\nsamples = 2\nvalue = [2, 0]\nclass = No", fillcolor="#e58139"] ;
177 -> 183 ;
184 [label="gini = 0.0\nsamples = 1\nvalue = [1, 0]\nclass = No", fillcolor="#e58139"] ;
166 -> 184 ;
}